{'n1_layer1': {'w': [[-2.109165668487549, -5.4156694412231445, 1.9196038246154785, -3.3555073738098145, 2.2653582096099854, -1.1889071464538574, -2.0466113090515137, 3.545624256134033, 2.672459125518799, 3.803079605102539], [-4.130986213684082, -10.849316596984863, 4.042918682098389, -6.699893474578857, 5.309183120727539, -1.7093214988708496, -3.837221622467041, 7.056532382965088, 5.286379337310791, 7.34179162979126]], 'b': [[3.944169521331787, 10.783798217773438, -3.791165828704834, 6.602483749389648, -4.996640682220459, 2.065347909927368, 3.673117160797119, -6.9583210945129395, -5.155282497406006, -7.311540126800537]]}, 'n1_layer2': {'w': [[-2.099905490875244, -2.0624806880950928, 3.355780601501465, -2.087338924407959, -3.232027530670166, 0.1064593717455864, -0.6784194707870483, 0.2723654508590698, 3.547177791595459, -1.7691742181777954], [-0.1403934210538864, -5.557321548461914, 7.796029567718506, -1.9717657566070557, -8.368453979492188, 3.9329473972320557, -1.4978145360946655, 3.250640869140625, 5.043017864227295, 1.077515959739685], [0.32024168968200684, 1.8627928495407104, -2.4521806240081787, -0.4170273244380951, 4.068285942077637, -0.3087987005710602, 0.6371399760246277, -0.8810744881629944, -3.8816468715667725, 0.9194132089614868], [-0.13325372338294983, -3.8964691162109375, 4.860569953918457, -1.5987529754638672, -5.355229377746582, 3.548551082611084, -0.5151649713516235, 1.851457118988037, 4.612680912017822, 0.16608920693397522], [-0.16973327100276947, 3.4631824493408203, -4.088951110839844, 0.7240282297134399, 4.337501525878906, -1.6355177164077759, -1.237284541130066, -1.8322429656982422, -2.600804567337036, -0.37216341495513916], [0.028206417337059975, -2.6259238719940186, 2.0693583488464355, 1.1982386112213135, -0.16674821078777313, 1.5779130458831787, -0.6944286823272705, 1.8121429681777954, -0.2420898973941803, 1.498970627784729], [-0.3348912000656128, -2.7968647480010986, 2.091909170150757, -2.539947748184204, -4.659492015838623, 0.5262536406517029, 0.5572124719619751, -0.8796176314353943, 1.6449484825134277, -0.04736784100532532], [-1.3026138544082642, 4.036701679229736, -5.305314064025879, 2.5439236164093018, 5.595125198364258, -1.7334179878234863, -0.1026468351483345, -0.7182689309120178, -5.23848295211792, 1.4622408151626587], [-0.18773379921913147, 2.0388987064361572, -4.643693923950195, 2.4017317295074463, 4.961552619934082, -0.4037092626094818, -0.19369710981845856, -1.713594675064087, -3.1979570388793945, -0.17658326029777527], [0.5803378224372864, 3.3640599250793457, -5.946285247802734, -0.23064030706882477, 7.102784156799316, -3.0987420082092285, 0.15801256895065308, 0.02498217113316059, -4.933277606964111, 0.4438129961490631]], 'b': [[-0.3179387152194977, -0.7555689811706543, 1.1164461374282837, -0.5526600480079651, -1.5082858800888062, 0.25375354290008545, -1.0713804960250854, 0.03531274199485779, 1.1186954975128174, 1.1410956382751465]]}, 'n1_layer3': {'w': [[0.1839970350265503], [8.000027656555176], [-9.813793182373047], [3.4614498615264893], [11.906840324401855], [-4.7627716064453125], [0.7004702091217041], [-4.037298679351807], [-8.060574531555176], [0.42271968722343445]], 'b': [[-0.2192448079586029]]}, 'n2_layer1': {'w': [[-0.07641802728176117, -1.19178307056427, -2.190117120742798, -3.6301512718200684, 8.987990379333496, -1.4621275663375854, -6.696080207824707, -1.0921826362609863, -0.6028245687484741, -2.7161152362823486], [2.0527448654174805, 0.12839260697364807, 4.794211387634277, 6.548932075500488, -18.00177574157715, 3.4281740188598633, 13.411369323730469, 1.6552586555480957, -1.5904756784439087, 5.147623538970947]], 'b': [[-0.4112018942832947, -1.3779590129852295, -0.12960340082645416, 0.16663238406181335, 0.01408585999161005, -0.16676141321659088, -0.015830839052796364, -0.05856883153319359, -0.4008678197860718, 0.07288971543312073]]}, 'n2_layer2': {'w': [[-1.8290274143218994, 1.0957913398742676, 1.5892751216888428, 0.4301814138889313, 0.4588472843170166, -0.8772107362747192, 0.1085028275847435, 0.4690801799297333, -0.7031664252281189, 0.1409250646829605], [0.22203445434570312, 0.013624126091599464, 2.1115550994873047, -0.16802829504013062, -1.1084685325622559, 1.0546727180480957, 0.7856935262680054, 0.15638872981071472, -1.4744462966918945, 0.28724268078804016], [-2.2003610134124756, -1.223781943321228, 2.5201520919799805, 2.0740599632263184, -2.4014012813568115, 0.3502594232559204, 2.074028491973877, 1.171166181564331, -0.5707129240036011, 0.9882827997207642], [-4.370148181915283, 0.03893786668777466, 4.694552421569824, 1.5724910497665405, -1.7965316772460938, 1.539737343788147, 1.659512996673584, 2.6718339920043945, -2.015631675720215, 0.13402783870697021], [7.3029680252075195, 0.5126526951789856, -8.039121627807617, -4.2020134925842285, 4.91459846496582, -3.132856607437134, -4.00036096572876, -5.801034450531006, 1.3186628818511963, -1.0017684698104858], [-2.634178400039673, -0.5757122039794922, 1.2449229955673218, 1.5466221570968628, -2.664268970489502, 0.56929612159729, 0.5358135104179382, -0.04959998279809952, -0.016573714092373848, 0.7330761551856995], [-7.098610877990723, -0.995934247970581, 6.177977561950684, 3.739800214767456, -4.000229358673096, 0.6488654613494873, 2.1306698322296143, 3.5776872634887695, -1.008481740951538, 0.8248557448387146], [-1.5368582010269165, -0.17241306602954865, 2.657953977584839, 0.5781821608543396, 0.2417260855436325, -2.2630581855773926, 0.566330075263977, 0.3674711287021637, 0.3852955102920532, 0.6001285910606384], [-0.32264742255210876, -0.05666579306125641, -0.9609825015068054, 0.10387395322322845, -0.2991434335708618, 1.448131799697876, -2.1775646209716797, -1.5314698219299316, 0.08635444939136505, -0.1423627883195877], [-2.608690023422241, -0.9691806435585022, 2.2184386253356934, 2.0597026348114014, -1.6211339235305786, 1.3529378175735474, 1.0105074644088745, 3.2426271438598633, -0.8823128938674927, 1.5749925374984741]], 'b': [[-0.12129849195480347, 0.020552657544612885, 0.72054123878479, 0.03164830058813095, -0.5485819578170776, 0.6617925763130188, -0.18704135715961456, -0.2791972756385803, -0.5949358344078064, -0.3522298336029053]]}, 'n2_layer3': {'w': [[-9.703768730163574], [-1.591770052909851], [9.796948432922363], [6.072132110595703], [-7.44677734375], [4.2458977699279785], [6.023711204528809], [7.98833703994751], [-2.755389451980591], [1.9931209087371826]], 'b': [[0.237489715218544]]}}